0.0258791 -0.00892503 -0.0763106 0.202059 -0.0904427 -0.0674723 -0.0400414 0.114679 -0.0327215 -0.0915282 
0.00207773 0.0146922 -0.0267504 -0.0235051 0.0665905 0.0297917 0.0312538 -0.0137776 0.0867926 -0.0207144 
-0.00457661 0.0860503 0.04368 0.0176868 0.0517198 -0.0272562 0.0666695 -0.0254181 -0.0662771 -0.0554369 
-0.0772413 0.0122421 -0.0387538 0.0557636 0.0136804 0.0325278 -0.0763116 -0.0942412 -0.0431082 0.119101 
0.0485019 0.103995 0.0146315 0.0331147 -0.0543776 0.007576 -0.0342244 0.148213 -0.127436 0.0274217 
0.0513358 0.0104765 0.0205527 -0.0189049 0.0215841 0.00130897 -0.0197296 0.0744113 0.0129106 0.0442843 
0.0578478 0.0709832 0.0790723 -0.0372839 -0.0273345 0.0733374 -0.102918 0.0796325 -0.0890869 -0.0842952 
-0.0704331 -0.0532585 -0.0366166 0.00154462 -0.00965881 0.0394245 -0.0919236 0.0492056 -0.0351981 0.0680838 
-0.0153225 -0.0246425 0.0334276 0.00251868 0.0714497 -0.0391584 0.0176412 0.134033 -0.0073276 -0.08675 
-0.0391329 -0.0504007 -0.0619735 0.0493203 -0.070963 0.0913604 -0.0363071 -0.00405612 -0.100268 -0.034814 
-0.0543481 0.0786169 -0.0387157 -0.0141933 -0.0491476 -0.034205 -0.00448251 -0.0179056 -0.0154948 -0.0451123 
0.0306393 0.114604 0.102676 0.0252516 -0.0328068 0.065991 -0.0961885 -0.0132042 0.113201 -0.109362 
0.0492737 -0.00390189 -0.0513949 -0.00339026 -0.0520709 -0.0516168 0.0416322 -0.0544153 0.0583219 -0.0852208 
0.0473937 -0.0760839 -0.0163653 -0.00433267 -0.0664611 0.0508794 0.0211209 0.0418221 0.0168899 -0.0251699 
-0.0246894 -0.00434502 -0.139817 -0.0678827 -0.0228311 0.164488 0.147769 -0.0277967 0.060652 -0.00639145 
0.0227536 0.0433198 -0.0870721 -0.125248 0.077676 -0.0925681 0.0396593 0.0899637 -0.0252634 0.10413 
-0.097891 0.0513331 -0.0643399 -0.0214956 0.0297593 0.0325381 0.0783363 -0.0103504 0.100642 -0.11692 
-0.022906 -0.0292715 -0.088601 -0.0165393 0.0801619 0.0166734 -0.0741775 0.0170593 0.0825733 0.0345974 
0.00909497 0.110594 -0.0610625 0.141928 -0.0864906 -0.101144 -0.105054 0.0934991 -0.0226788 0.082315 
-0.0241483 -0.0237711 -0.126672 0.139722 -0.0125387 0.0282768 -0.10701 -0.0396115 -0.0866174 0.0291633 
-0.024495 0.0686446 0.046023 0.0440418 -0.0126696 -0.00220619 0.0186889 -0.0102453 -0.0455399 0.0650867 
-0.0626215 -0.102355 0.0100972 0.037228 0.038038 0.0990519 0.0680454 -0.0861886 -0.0532469 -0.0352774 
0.05074 -0.0152072 -0.0104723 0.0242958 -0.00854596 0.00955186 -0.0237001 0.071604 0.0527161 -0.0206967 
-0.00184219 0.0496355 0.0115643 0.0321563 -0.00140615 -0.00513058 -0.044497 -0.0602673 0.0579862 -0.0612432 
0.108364 0.0912306 0.0192456 0.0726923 -0.0995999 -0.175175 -0.0835864 0.0249411 0.126102 0.0237892 
0.0533105 -0.0262001 0.00770379 -0.0521358 0.0347679 -0.0524165 -0.0412725 0.0010931 -0.0514636 -0.021676 
-0.0246678 -0.0293911 0.0117072 0.0427405 -0.0816071 0.0384169 0.0236508 0.10097 0.049939 0.0741152 
0.0435708 -0.031901 -0.140874 -0.0530949 0.0495987 0.115873 -0.0245204 -0.0440942 0.070776 0.0944083 
-0.0549814 0.083755 -0.0599282 -0.0684547 -0.0540312 0.00381122 -0.0533961 -0.044887 0.0511935 -0.0681853 
0.0282805 0.068013 -0.0721549 -0.0573174 0.0382682 -0.0633003 -0.0436735 0.152525 -0.0158568 -0.0777401 
0.0757049 0.0268337 0.144416 -0.0159465 0.0713098 -0.0722758 -0.0150567 0.0765799 -0.132421 0.0117075 
-0.00153905 -0.00604599 -0.0350145 -0.0725834 0.00233695 -0.034313 -0.0787233 0.0469868 -0.0843234 0.0647814 
0.0628328 -0.0665433 -0.110701 -0.151657 0.0500016 0.0220497 0.0534866 -0.0487588 -0.114712 0.123716 
-0.0105864 0.0815071 0.00470191 0.0911553 0.0435482 -0.00361964 0.0467856 0.0376367 -0.0404372 0.058099 
-0.0477932 -0.0212369 -0.0393212 0.0932019 -0.0239542 0.0286451 -0.0678279 0.017198 -0.0586584 -0.0851682 
-0.131863 -0.12844 -0.0819856 -0.107431 0.212639 0.0752986 -0.0793379 0.0556379 0.0681672 0.12389 
0.0576532 0.0794703 0.0648196 0.0362011 0.0609276 0.0267979 -0.0746056 -0.0319044 -0.0879312 0.0196962 
-0.0466546 0.0149414 -0.0572243 -0.0382283 0.00842837 -0.0555142 0.0506015 0.0623294 0.0346881 -0.0187339 
-0.0240861 -0.0176555 0.0175413 -0.0944291 0.0559905 0.0583931 0.0433006 -0.0753926 0.0399664 0.0535954 
-0.0581383 -0.0126208 -0.118803 -0.0508564 0.00488084 -0.0494133 0.0576437 -0.00932973 0.0177809 -0.0537419 
-0.115231 0.0136291 0.0106916 0.0293034 -0.035774 -0.0623346 -0.0689324 -0.07765 0.0996289 0.148209 
-0.0280526 -0.0382173 0.0212223 0.0663743 0.0219869 -0.0235797 -0.0260296 0.117315 -0.0821704 0.0206672 
0.071333 0.0121487 0.0677769 -0.0507306 -0.0574225 0.00979997 0.123614 -0.0258415 -0.052207 -0.0223846 
-0.0440442 -0.0565707 0.0836136 -0.00757569 0.0901378 -0.0496267 0.063323 0.00818381 -0.0812237 -0.101119 
-0.0622077 0.0774824 0.00910221 0.0258725 0.104589 0.00894125 -0.0500671 -0.00435326 0.0195952 0.0533298 
0.0542139 -0.0326906 0.0256375 -0.0148627 0.0816187 -0.00455519 0.0167981 -0.00373093 0.0597075 -0.0306965 
-0.000688332 -0.0408474 0.0684608 -0.0536573 0.0376504 0.122647 0.109532 -0.0779241 0.087318 0.0254804 
-0.0717776 -0.0253937 -0.013768 0.0177345 -0.0196044 -0.0312978 0.0031654 0.0683674 0.0654786 0.00877118 
-0.00598835 0.0420338 0.0318423 -0.00936576 0.00819985 -0.0884403 0.120516 0.0334693 0.0263036 -0.138193 
0.14664 -0.00805576 0.195319 0.0332741 -0.120063 -0.052788 0.0885124 -0.0990757 0.0232969 -0.0695936 
0.000165349 0.0704794 0.00708992 0.0741537 0.0814826 -0.0905405 -0.0962499 -0.0427438 0.0663784 -0.0373004 
-0.0450955 0.0847627 -0.0449997 0.00693327 0.00534993 -0.0247409 0.00796196 -0.0434656 -0.0565741 0.0244449 
0.0728168 -0.034632 0.0378334 0.0113424 -0.0668177 0.0239881 0.064682 -0.0545679 0.0570705 0.0286957 
-0.0667326 0.0766031 0.0283754 -0.0981437 0.0861508 -0.0417312 0.000627909 0.0221674 -0.0408781 0.00397635 
-0.0353098 -0.0571686 0.0214432 0.00146323 0.0504432 0.0955213 0.0412954 -0.0379038 -0.00807197 0.0586395 
0.0337921 0.0210413 -0.0736413 -0.103719 0.134455 -0.0688708 -0.000704425 0.0520073 -0.0313805 0.128328 
-0.0524314 0.0210909 0.0523994 0.0437539 -0.0137559 -0.00844347 0.0114238 0.0212819 -0.0323325 -0.0383045 
0.0642854 -0.00312471 0.0140169 -0.0449067 -0.0261327 0.0440909 0.0243132 -0.0270343 0.00688146 0.0389269 
0.000487952 -0.056685 0.0349591 -0.0927328 0.00915487 -0.0164938 0.0226077 0.0672176 0.106133 0.0447809 
-0.126343 0.00568832 -0.105096 0.0138335 0.00260612 -0.0527308 -0.00259681 -0.00977188 0.0955096 0.0663474 
-0.129329 -0.049241 -0.0355169 0.112725 0.081872 0.0779606 -0.148761 0.0731571 0.105821 0.0211503 
0.0517606 0.0223178 0.105885 0.0397827 -0.0793902 -0.0642184 -0.0669953 0.0267352 -0.0530412 0.0626442 
-0.0962087 0.0497686 -0.0597167 0.0481218 -0.0128106 -0.00317685 -0.105365 0.0352128 -0.052397 0.116113 
-0.0598253 -0.109057 0.0406032 -0.0206666 -0.079819 0.00464117 0.0329478 -0.0586451 0.00793437 -0.0692557 
0.0956499 -0.0341924 0.145425 -0.045415 -0.0301809 -0.0897833 0.0559823 0.0374808 -0.141651 -0.0960807 
-0.0834848 -0.0147966 -0.0495651 -0.056926 0.151115 -0.11602 -0.0400071 -0.00663949 0.0470218 0.0823303 
0.0606053 0.0401971 -0.130493 -0.105786 0.0804639 -0.0159817 -0.0974899 0.103318 0.00828001 0.0701567 
-0.0579594 0.156281 -0.129556 -0.0698703 -0.0651002 0.1328 -0.0188748 0.132614 -0.134265 -0.00215633 
-0.0408955 -0.0355984 -0.0234117 -0.00500203 -0.0402707 0.0486693 0.0158793 5.50567e-05 -0.082399 0.13217 
-0.0348257 -0.0403941 -0.0569708 0.0152935 0.0171102 0.0938498 0.00822431 0.10969 -0.060659 -0.0823174 
-0.070395 0.0274733 0.0129599 0.0738979 -0.0276166 0.0870191 0.0198392 -0.00460188 0.0128976 -0.0183656 
0.0104396 0.0637704 -0.0287263 -0.0972776 0.00779643 0.0853544 0.0287665 -0.00801914 0.0366552 0.0985244 
0.0184204 -0.0350522 -0.0523443 0.0722074 0.0437858 -0.0406365 -0.0630953 0.0187345 0.0503747 -0.0779373 
-0.036206 0.0358802 0.0375136 0.0730016 -0.171115 -0.105736 0.0203498 0.119233 -0.0227869 0.0675543 
0.0529969 -0.0345205 -0.0494794 0.0303267 -0.100876 0.0716244 0.0731113 -0.0197619 0.0274244 -0.0505061 
-0.0770963 0.0858134 0.0723097 0.00978951 -0.00671234 0.0279525 -0.0650531 0.134073 0.0206789 -0.0914569 
0.0628381 -0.00139546 -0.0830374 -0.052412 0.0663142 0.0301349 0.015919 -0.0910186 -0.00205228 -0.0498611 
-0.0785478 0.0706658 -0.083026 0.136845 -0.0234643 -0.0900473 -0.100557 0.0206406 -0.0332357 0.0066397 
0.141883 -0.0380058 -0.0231044 -0.10015 -0.08163 -0.00154482 -0.0583178 -0.0772965 0.019099 -0.00611942 
0.0769314 0.0360969 0.113513 -0.0368892 0.0611578 -0.119752 -0.0926169 0.0489716 -0.0787134 -0.0296534 
0.0157359 -0.0649982 -0.083929 0.00326259 -0.128727 0.0884123 0.021858 -0.0199162 0.0343544 0.0317837 
-0.0692979 -0.029235 0.109499 -0.0200615 0.0593348 -0.0328586 -0.0299035 -0.129373 -0.0728607 0.0196273 
-0.0735903 -0.0512039 -0.0684632 -0.0151246 0.080224 -0.058544 -0.015176 -0.0392134 0.0348918 0.0486933 
-0.0890703 -0.0281355 0.0440545 -0.0297053 -0.0145707 -0.0713746 0.0602863 -0.0585649 0.0394233 0.075207 
0.0840926 -0.0128811 0.0105876 -0.0683843 -0.10772 0.0799879 0.0458122 -0.0708709 0.149881 -0.0450945 
-0.0787149 -0.0851533 -0.00458906 0.0947283 0.0749606 -0.0019185 -0.0136322 -0.122779 -0.00882147 0.0708501 
0.0257135 -0.0508057 0.119961 -0.0288144 -0.0475072 -0.0351248 -0.0952985 0.0586715 0.00147465 0.0828712 
-0.0285754 0.162034 0.18799 -0.0153228 -0.0250898 -0.172746 -0.120987 -0.0664655 -0.0734778 -0.0360181 
0.0422848 -0.022281 -0.079657 0.0382129 0.0813995 -0.0331528 -0.0198656 -0.0454265 -0.0463901 0.0841269 
0.0380857 0.107422 -0.0348872 0.0686607 -0.0103153 0.0114482 0.0455984 -0.0261827 -0.0410733 -0.0640565 
-0.112768 -0.0355797 0.0247899 0.123432 0.062353 -0.0099006 -0.018898 -0.0549583 -0.0678673 -0.043933 
0.00347618 0.0620241 0.107517 -0.0678072 0.107129 0.0430203 0.0916354 -0.0722343 -0.0794088 0.0344502 
-0.0316942 0.0516412 -0.00305184 0.0926944 0.0464275 0.0581995 0.119951 -0.0167263 -0.084908 -0.126136 
0.0431724 -0.0970781 0.0681495 0.0964843 -0.0402132 -0.041509 0.00875766 -0.0250497 -0.0171275 -0.0091042 
0.0151033 -0.095764 0.1224 0.153823 -0.0395553 -0.0051397 -0.0738547 0.0219758 0.0263431 0.0200862 
0.168499 -0.106456 0.0116366 -0.0508267 -0.0144239 -0.103288 -0.0407911 0.0670003 0.0443276 0.0721914 
-0.129467 -0.12146 0.0194668 0.0406561 -0.124792 0.107196 0.0596459 0.0234957 0.0897125 -0.101761 
-0.0264082 0.0603213 0.0143543 0.15068 -0.0154013 0.10966 0.020455 0.0125751 -0.067453 0.0125769 
-0.0968028 0.00902287 0.100479 -0.0700264 -0.0166868 -0.103725 0.00399391 -0.00664709 0.0809229 -0.023284 
-0.0307759 -0.109754 0.0407015 -0.0537171 0.069543 0.0273102 0.0107798 -0.0273717 0.119975 0.0207182 
0.141493 -0.0892065 -0.120123 -0.00332887 -0.0833855 0.083478 0.191544 -0.149292 0.0872639 -0.0497843 
0.0641728 -0.0198232 0.0806095 -0.0533725 0.0164951 -0.0362788 -0.00793702 -0.0010264 0.0720498 0.0193759 
0.0241701 -0.0375937 -0.0729005 -0.0231054 0.0115362 0.0480083 0.0640569 -0.093607 0.0973699 0.180861 
-0.0187233 -0.0595162 0.0724241 -0.013225 0.0395746 0.0134161 0.0648108 -0.0191423 -0.0932144 0.0444442 
-0.0201424 -0.00219782 0.0253746 0.0472059 -0.0144179 -0.0339398 -0.088768 0.215734 -0.0137701 -0.0719113 
-0.0503543 0.0635043 0.0223407 -0.0536386 0.0395227 0.0429645 0.00508196 -0.0523989 -0.0733089 -0.0570314 
0.0771783 -0.0600942 0.0354556 0.0465351 -0.125881 0.00925888 -0.0402752 -0.0349511 0.0426998 -0.0694452 
0.00753488 0.00275699 0.0223251 0.0502755 0.119626 -0.0108998 -0.00561141 0.0830293 -0.00648201 -0.109031 
0.0409413 0.0383156 -0.0134309 -0.015701 0.164976 -0.09888 -0.02609 -0.0453526 0.0420163 -0.0723163 
-0.0211094 -0.0247783 -0.0209032 0.0222313 -0.060266 0.056302 -0.0393043 -0.0563321 0.0847155 0.0475586 
0.130242 -0.0287764 -0.0666185 0.10758 -0.108798 0.0254415 0.0212066 -0.0658518 0.0526854 -0.0927451 
-0.0692312 -0.048961 0.0627354 0.119655 -0.173181 0.0311267 -0.0381407 0.0902451 0.0620525 -0.005111 
-0.0728723 -0.000313291 -0.0100791 -0.0852298 -0.0195965 0.0422141 0.0983729 0.0208903 0.0817202 0.0657549 
-0.03593 -0.0278131 -0.0337047 -0.0600637 0.156571 -0.00610115 -0.063308 -0.014942 0.0317287 -0.0560373 
0.0900191 -0.0841137 0.154358 0.0212793 -0.0663668 -0.0390381 -0.0240249 0.0602372 0.0440655 -0.0461086 
-0.0121465 -0.00315018 -0.078152 0.0491504 0.0617853 -0.0694597 -0.0710196 -0.0411824 0.0453325 0.0005632 
0.092751 -0.0272704 0.141202 -0.148569 0.121094 -0.0882978 0.0976525 -0.0822572 0.0767193 -0.117066 
0.02113 0.0821629 -0.11126 -0.0259051 -0.108257 0.120825 9.88826e-06 -0.0705027 0.103713 0.0616518 
0.00617269 -0.131348 0.0652549 -0.0435855 -0.0388405 0.0579248 0.0124975 -0.102731 0.0382745 -0.0281031 
0.0373158 -0.115847 -0.047571 -0.0339242 -0.103032 0.112742 -0.0635384 -0.00433857 -0.0563669 0.00522533 
0.0541922 -0.124431 0.0923671 0.096753 -0.179533 0.0477644 -0.0754919 -0.0291876 0.0860084 -0.0537649 
-0.00155479 -0.00585137 -0.0437906 0.00562197 0.0387645 0.0259707 -0.121237 0.0118138 0.0248583 0.0343118 
0.0508365 0.0562463 -0.134468 -0.158138 0.0210297 0.0163481 -0.0362108 -0.094935 -0.00844893 -0.00736084 
-0.0173516 -0.0180709 0.0322292 0.0316064 0.000102147 0.0594184 0.0724382 -0.053068 0.02131 -0.142976 
-0.0231854 0.117185 -0.0678993 -0.0952931 0.0493265 0.0202893 -0.0367899 -0.0164822 -0.0473795 -0.0466002 
0.0125269 0.0551762 0.0440308 0.0562524 -0.0239113 0.035281 -0.0869598 -0.00360376 -0.0122402 -0.0409308 
-0.0309669 0.0970513 0.0688499 -0.0507921 0.0748772 -0.117952 -0.0239841 0.0129387 -0.0444383 0.104523 
-0.0850916 0.131484 -0.124393 0.0570183 0.0199366 0.0946605 -0.0923658 -0.0714284 -0.10019 0.018955 
0.0105368 -0.0685576 -0.027143 0.0571922 0.0181584 -0.0611174 0.0235196 -0.0101948 0.00666688 0.0781733 
0.0622667 0.0471906 -0.112878 0.00391954 0.114651 -0.0831486 0.112132 -0.077523 -0.110971 0.0233745 
0.00565306 0.0628568 0.109279 0.0261902 -0.108062 -0.0466609 -0.0644099 0.0338601 0.0857604 -0.164181 
0.037274 -0.0028489 -0.000380743 -0.0324858 0.0712384 0.00905512 -0.0517855 0.0625273 -0.00705493 -0.0361193 
-0.0361795 0.11874 0.118837 0.0461848 -0.0393622 -0.0564033 0.0625497 0.116545 -0.132883 -0.0731492 
0.0788501 0.0816296 0.158008 -0.010274 0.0372597 -0.131423 -0.161219 0.0852271 -0.0117329 -0.117814 
-0.115453 -0.0337419 0.0525427 0.100158 0.0373637 0.0369001 0.0328761 -0.0259244 0.078382 0.0663065 
-0.0468428 -0.0672835 -0.00256328 0.0536355 0.0467624 0.00771875 0.0257537 -0.009907 -0.0260409 -0.0454043 
0.0513522 0.0205953 0.027632 0.0229107 0.0174351 0.0303758 0.0047226 0.00750216 0.0605768 0.0238282 
0.00607467 0.0831512 0.0103803 0.0184725 -0.00374603 0.00921676 -0.0552008 0.0845686 -0.0427712 -0.0550514 
-0.0437746 -0.0453805 0.0231069 -0.056036 0.0967405 0.0699828 0.029759 -0.0167025 -0.0923291 0.130768 
0.0760581 -0.0628784 -0.105513 -0.121984 0.128726 0.0128659 0.0863839 0.0959102 -0.0217016 -0.0769698 
0.0135001 0.0990029 0.023248 0.0379211 -0.0278428 0.0673658 -0.0222472 0.133035 -0.0185221 -0.0963859 
-0.0137748 -0.029673 0.083235 -0.0663845 0.0939216 0.0096517 -0.100423 0.0188363 -0.0837655 -0.0704563 
-0.0950608 0.025367 -0.0430195 -0.0383384 0.0698989 -0.104056 -0.0883743 -0.00469424 0.0203868 0.116516 
-0.0540333 0.0574323 0.0328342 0.00295408 -0.0121242 -0.0573827 -0.00566043 -0.044154 -0.0538301 -0.0104978 
-0.107226 0.0832226 -0.134107 0.104424 -0.0154493 0.00794767 -0.142796 -0.0754537 0.161284 0.0615442 
-0.0959905 0.0607004 -0.126836 0.00350476 0.095908 0.073958 -0.0471235 0.022917 -0.187677 0.141428 
-0.0502583 -0.00231831 -0.011097 0.0519773 -0.107178 -0.0751024 -0.0124068 -0.0946163 0.108517 -0.00637665 
0.0439099 -0.0561399 0.0820495 0.042501 0.0282032 -0.0609858 0.0211251 0.0563176 0.143898 0.0407621 
0.0291529 -0.00063887 0.021327 -0.0229151 0.0591378 -0.0470494 -0.0278765 0.0589681 0.0582329 -0.0810125 
0.0118538 0.0672753 -0.0601514 -0.0130151 0.0924371 0.00298372 0.0845426 0.0390514 0.0775332 -0.175483 
0.00521719 0.0266687 0.0285895 -0.00413873 -0.00925976 0.113059 -0.00785772 -0.0605307 0.0174656 0.0423898 
0.0874178 -0.0200324 -0.0636397 -0.0105997 -0.0322615 0.154145 0.0818028 -0.0853511 -0.114865 -0.0343828 
0.0318915 0.0022568 0.0914927 -0.0877844 0.0600363 -0.0339822 -0.0684662 -0.00255103 -0.0391994 0.0557216 
-0.0543246 0.00331662 -0.0959356 0.0348252 0.0541469 0.0739698 -0.0465361 0.0348249 -0.0350835 -0.0490651 
-0.0225322 0.0551544 0.0570069 -0.0274497 0.046037 -0.019377 -0.0170859 0.0177232 -0.093384 0.0651485 
-0.0452767 -0.0222764 -0.00651699 -0.016386 0.0355888 0.053735 -0.0899162 -0.00704818 -0.0060256 0.0225842 
0.0735171 0.0917683 0.0731016 -0.0730721 0.02289 -0.0233349 0.0778949 -0.0256241 -0.107247 -0.041613 
-0.0642807 0.0585011 0.0994369 -0.0215186 0.00554459 0.0325907 -0.0445118 -0.0503617 -0.0868012 -0.0385631 
-0.0751094 -0.0741692 0.0448201 -0.0625959 -0.0200622 -0.0522719 -0.0289366 0.069014 0.0458445 -0.0426847 
-0.0844918 0.0730535 0.0631015 -0.0165838 -0.0138221 0.0520605 -0.00105156 0.0491104 -0.054923 -0.0302192 
0.026521 -0.09674 -0.0110214 0.00921954 0.00361834 0.0765898 -0.00486424 -0.0615206 -0.0189899 0.0905058 
0.0734592 0.0485119 -0.0809749 -0.0860479 0.0319657 0.0299441 -0.0644286 0.0789608 -0.0524589 0.0288393 
-0.084485 0.0409525 0.0393359 -0.0991898 -0.0434293 0.0467737 0.00462825 0.00397829 0.0153121 -0.000584535 
-0.0129388 0.0267952 -0.120138 0.041464 -0.0686156 0.00654278 -0.0627731 -0.0232436 0.0944912 -0.0418004 
-0.0907979 0.0964091 -0.0708543 0.126399 -0.10226 0.0250798 0.0467754 -0.0940483 -0.0478494 0.0994681 
-0.0574875 0.108258 0.0846509 -0.0923958 0.0586886 -0.0635593 0.0108106 0.0795923 -0.0235547 -0.0504435 
0.0283018 -0.0114921 0.0799037 0.0047122 -0.11296 -0.0382217 -0.0780818 0.0515511 0.0207374 -0.0854742 
0.0251704 0.0583574 0.049397 -0.0798074 0.0793524 -0.0666818 -0.0674277 0.0315648 -0.0373001 0.0810542 
0.00191122 -0.0705518 -0.0438192 -0.0767409 -0.00587444 0.0551975 0.0042432 0.113277 -0.0402004 -0.106972 
-0.0733132 -0.0269617 -0.0743477 0.0402188 0.0680414 0.0557134 -0.103513 0.115886 0.00500806 0.0928869 
-0.0126503 0.0623085 -0.0426228 0.0222116 0.0272738 -0.0195085 0.038331 0.00801218 0.0307881 -0.0430942 
0.087626 -0.12754 -0.0158829 0.0139746 0.081348 -0.0977542 0.0516852 -0.144689 -0.0379032 0.114126 
-0.0605769 -0.013242 -0.150969 -0.0711019 -0.0533185 0.130781 0.207154 0.0328808 -0.0330204 0.101905 
-0.0035881 -0.0716834 -0.041323 0.0624749 -0.0259168 -0.011486 0.0288709 -0.0273205 0.0485812 -0.0339984 
0.0162764 0.00869255 0.0286984 -0.0787503 0.0721773 0.0277837 0.0200796 0.0369068 -0.0282709 0.0412549 
0.12063 -0.0670559 0.0201423 -0.055478 -0.0486858 0.090593 -0.00954885 0.0060004 0.044146 -0.0643805 
-0.0820742 -0.0705663 -0.00476594 0.0032542 -0.0024084 -0.00255168 -0.0607087 0.00927113 0.0228206 -0.0853323 
-0.00494093 -0.0224005 -0.0569183 0.00347887 -0.022568 0.0809293 0.0297244 -0.0190945 -0.0150513 0.108436 
0.0764163 -0.0222312 -0.100177 -0.119842 -0.0580708 0.0222304 0.13253 0.0481162 -0.109961 -0.0706342 
0.0542158 0.105593 -0.0370278 -0.0398153 -0.0644598 -0.0753961 -0.0665989 0.021963 -0.00013975 0.0484858 
-0.0556009 -0.0689567 0.0424696 0.0354581 -0.0149832 -0.076632 -0.138443 -0.0496339 0.0645464 -0.0275859 
-0.0931657 -0.018425 -0.0342656 -0.0268999 0.0633117 0.00745648 -0.0464007 -0.10132 0.146027 0.121669 
0.00335584 -0.0149158 0.0273655 0.0607968 -0.0583285 0.101706 -0.0859926 -0.103981 -0.0044753 -0.0391257 
0.153205 -0.011819 -0.128643 -0.159763 -0.00920688 0.114591 0.117978 -0.0464667 -0.0300641 -0.0253924 
0.070559 0.0325926 -0.103893 0.102399 -0.0466693 0.0517359 0.0248757 -0.0198466 0.0293666 -0.0873752 
0.0783378 -0.0841065 -0.0365206 0.0426761 -0.0366654 0.10526 0.00855561 0.0404608 -0.150221 0.00873335 
0.0961341 -0.0739511 -0.0297325 -0.039661 0.0412723 -0.0287977 0.0326118 -0.0511935 0.0484276 0.0852396 
-0.0445788 0.00339847 0.0401892 0.0699997 0.0123585 -0.0284498 -0.064463 -0.0346348 -0.0832915 -0.0509233 
-0.0116239 0.0433558 0.0334822 0.0427914 0.058036 -0.0419647 0.0568532 -0.0377529 -0.0543677 -0.0186272 
0.0246548 0.0355272 0.0308001 -0.0737646 0.0838452 -0.0634984 -0.00173755 -0.0487872 0.0247776 -0.0986275 
0.01582 -0.0355769 0.0808196 0.0648357 -0.0289522 -0.0659228 0.0539656 -0.00308586 -0.0276396 -0.0627978 
-0.0319934 0.0615926 0.0378445 -0.0183555 -0.067683 0.0537307 0.104644 -0.0520749 0.0199819 -0.0507034 
0.0096085 0.0958153 0.133787 -0.0707359 0.00270703 -0.033467 -0.0657359 0.0452178 0.031938 -0.0687506 
-0.0468524 -0.0941126 0.0912999 0.0374518 -0.11071 0.0710075 0.089855 -0.0816386 -0.0506415 0.00829789 
0.123059 0.0051429 0.0824525 -0.0426333 -0.0622701 0.0321566 -0.0325951 0.0657544 0.0593356 0.0603029 
0.0813418 -0.0849345 0.0332463 -0.0424434 0.0156665 -0.0396533 0.0412341 0.0554209 -0.0182769 -0.00613853 
0.0933367 -0.0558911 -0.0212798 0.0131174 0.0242955 -0.0485296 -0.0521658 -0.126477 0.00444 0.0690971 
-0.0372961 0.0509313 0.041165 -0.0529591 -0.116134 0.130656 0.103691 0.020259 -0.00371585 0.00246978 
-0.0527237 -0.0854362 0.10516 0.0419329 0.106825 -0.00283072 -0.0681454 0.0694046 -0.0876088 -0.0122098 
0.0789638 -0.041423 0.0840936 0.0738457 -0.0979449 -0.208244 -0.0216208 0.020898 0.0317739 -0.027958 
-0.0323931 0.0629945 0.00256432 0.100823 -0.0332707 -0.0947493 -0.0350798 -0.0721717 0.000374601 -0.0431329 
-0.0438566 -0.0576421 0.0691836 -0.0132065 0.0534213 0.00851313 0.0359512 -0.00851505 0.0516154 0.0613184 
-0.00273331 0.0381792 -0.0808444 0.0533027 0.0148405 -0.064183 -0.0398752 0.0891009 0.117321 -0.166302 
0.00523018 0.0358805 -0.0205757 -0.0378357 0.00668518 -0.0378287 -0.0613435 -0.0105319 0.00772922 -0.0986066 
-0.0476677 0.0903191 0.0372276 -0.0674366 0.000824472 0.0329879 -0.0203517 -0.0739836 0.0775256 -0.101443 
0.0746566 0.0257377 0.0194085 0.0301887 -0.0160399 0.0123016 -0.0240823 -0.00372696 -0.00417074 0.0328222 
0.0699301 -0.0023153 0.0270211 0.033473 0.0294466 0.0122443 0.00382245 -0.0808877 0.0538714 -0.020262 
0.0276931 0.0631729 -0.069954 -0.125298 -0.00702891 -0.00292048 0.0540086 0.0678567 0.192168 -0.13051 
-0.00304258 0.0293665 -0.053866 -0.0462002 0.106731 -0.125465 0.00778589 0.140202 -0.0687573 -0.013144 
-0.0347599 0.0384231 0.0587008 0.0159399 -0.0228441 0.0422921 0.0303637 0.0386223 0.0501068 0.0188117 
0.050667 0.0952806 -0.101194 -0.104893 -0.0491249 0.0651383 0.176549 -0.0176889 -0.0776518 -0.0834172 
-0.0730726 -0.00686843 0.0299748 0.0784297 -0.0173433 0.0318317 -0.015319 -0.0551421 -0.0644673 0.081064 
0.0187446 -0.0415254 0.00249453 -0.0267944 -0.00917851 0.0957565 -0.0340291 -0.086391 0.00994487 0.041319 
0.000162251 -0.0480149 -0.0165688 0.0207988 -0.0421214 -0.00181392 0.0472823 -0.0982356 0.0458321 -0.070477 
0.0204995 -0.127353 0.0409605 -0.0306995 -0.0984858 -0.0038887 -0.0466581 -0.025552 0.0413164 0.0151289 
0.00311924 -0.0239915 0.0871617 0.0293933 0.0577706 0.0310279 0.0227445 -0.0394336 -0.07105 0.0226743 
0.00369247 0.0199601 -0.00152561 0.033565 0.00436519 0.0258109 -0.0479552 -0.033261 0.0133596 0.100717 
-0.0159102 0.16552 -0.0732505 -0.111082 0.0709891 -0.103248 -0.0291744 0.0143909 0.0274815 0.136488 
-0.0617613 0.084542 0.0427188 -0.0784363 0.109764 -0.0717725 -0.079476 0.103936 -0.0463398 -0.046046 
0.0292531 -0.0731578 0.0464593 0.0558536 0.0627285 -0.0206489 -0.0286393 0.00193242 0.0664601 -0.0626166 
0.0653806 -0.00851998 -0.0606564 0.0192039 0.0660647 0.064676 0.0488061 -0.0161868 -0.0619271 -0.05013 
-0.0472995 -0.0664703 0.00477587 0.0662638 -0.0535951 -0.0388398 -0.00867892 -0.0214445 -0.0349666 -0.0159608 
-0.059118 0.0472521 -0.0424153 -0.0295778 -0.0407418 0.102409 0.0979399 0.0123065 0.0223858 -0.0315072 
0.0520918 0.00899105 0.0629084 0.0180884 0.0577244 0.0509936 -0.0116095 0.0401224 -0.0028798 -0.0541147 
-0.070962 0.037145 0.0011681 -0.0279842 0.0252118 0.0471836 -0.0348256 0.0485256 -0.0327714 -0.0191504 
0.0976451 0.0136385 0.0211928 -0.073167 0.0678002 -0.0312282 -0.0127043 0.0371749 -0.0361728 0.0250357 
-0.0748966 0.0183698 -0.0511327 0.00492624 0.053766 -0.032448 0.107861 -0.0802338 -0.0661092 -0.0521049 
0.0267727 -0.050623 -0.0406367 0.0585134 0.0043112 -0.0763637 -0.00910012 -0.0635803 0.166927 0.0531425 
-0.00875014 -0.00612897 -0.125998 -0.138863 0.113938 0.118991 0.166746 -0.132121 0.0719169 -0.0245031 
0.0399159 -0.0588877 -0.0523853 -0.0159755 0.0695023 0.0591969 -0.0243552 -0.0251604 0.0642997 0.036258 
-0.0771401 0.0697257 0.105366 -0.0075138 0.133203 -0.0529158 0.0504945 -0.0719908 0.0337205 -0.125475 
0.00480053 -0.0877578 0.00978766 0.0841851 -0.0294143 -0.00630411 -0.0428174 0.0589334 -0.103051 0.040414 
-0.0637581 -0.0448824 -0.0427982 0.0290509 -0.0480435 0.123975 -0.0120102 -0.00820689 -0.0966349 -0.00161171 
-0.0315546 0.078619 0.0658603 -0.0446487 -0.0333809 0.0435032 -0.0301935 0.092541 -0.0337084 0.0303036 
0.0199736 -0.0908695 -0.0321529 -0.0289733 -0.014992 0.0155417 -0.0162703 0.0663259 -0.00116816 -0.0113306 
0.0425646 -0.0796089 0.00279081 0.0233634 -0.0335341 -0.00974143 -0.0205039 0.100346 -0.00617784 0.0758923 
-0.0613504 -0.0314808 -0.0425328 0.0140344 0.00183248 -0.0775977 0.0403342 0.0170921 0.0326944 -0.0970345 
-0.0537419 0.107288 0.0470003 0.0635547 -0.0441346 0.115614 -0.0111619 -0.0482408 0.0579386 -0.0971261 
0.0251084 -0.0622499 -0.0643083 -0.085925 0.0642419 -0.0398364 -0.0212286 0.102161 -0.0250774 0.00996033 
-0.0557988 -0.0286106 0.0649468 0.0687801 -0.0981395 -0.050951 -0.00517999 0.0346348 0.107067 -0.0249764 
-0.0679432 0.121756 0.089688 0.0119987 0.0220811 0.0233106 0.0278717 -0.0055638 -0.0187335 -0.0212467 
-0.0769709 0.043716 0.0707604 0.0152223 0.196139 0.0282853 -0.103972 -0.0660453 -0.107685 -0.0761339 
-0.00753456 -0.0827494 -0.0747662 0.00623116 -0.0944283 0.130905 0.0689124 -0.112279 0.0440312 0.0561783 
-0.0963129 -0.112037 0.140588 0.0124562 -0.00116342 -0.105198 -0.0240629 0.0845448 0.150915 0.0263483 
0.00115278 -0.00617925 0.030182 -0.0798929 0.000346841 -0.0905379 -0.0256657 0.044101 0.074343 -0.04327 
0.116109 -0.000990051 0.0132491 0.0764292 -0.146291 0.0274492 0.119526 -0.0982283 0.0859081 -0.0814552 
-0.0542894 0.0111051 -9.64052e-05 0.0491385 -0.0306315 0.0571978 -0.0772803 -0.0308005 -0.0375068 0.0242851 
0.0834597 -0.0141743 0.0648413 -0.0785529 0.0688249 0.0277922 0.0787531 -0.0652765 0.0909118 -0.0410568 
-0.0732791 0.022884 -0.133318 -0.0494906 -0.0974675 0.0783703 -0.00673883 0.0487688 -0.0376098 0.00115984 
0.140522 -0.0181617 -0.0634194 0.0233318 -0.0983499 0.00843026 -0.0285574 0.115682 0.0181288 -0.0891418 
0.0738783 -0.0546482 0.0381487 -0.00434688 -0.0359042 0.0323857 -0.0339555 0.0336942 -0.0580187 -0.00624389 
-0.00980123 0.000497842 0.0660722 -0.00152113 0.0856042 -0.118756 0.0391897 -0.00217372 0.0776379 0.111343 
0.0761232 0.0601691 -0.0216214 0.0639794 0.0427943 0.0639975 -0.0369359 0.0289125 0.00832283 -0.0879103 
0.0599875 0.00437062 0.125221 -0.0159487 -0.0918456 0.0910983 -0.0857873 0.0987594 0.00845619 -0.00344104 
0.0232437 0.0448839 0.0017101 -0.0710746 0.0869304 -0.00594086 -0.0337638 -0.0874789 0.0175798 -0.0731923 
-0.0829843 0.115724 -0.0971396 -0.0586893 0.00605041 0.0131135 -0.0591442 0.00568297 -0.0886044 0.0246984 
-0.0106386 -0.0612796 0.0129596 0.0193859 0.0433129 -0.0110903 -0.00230334 0.049206 0.095291 -0.0871885 
-0.065445 0.0566066 -0.0713863 -0.0418397 -0.0179692 0.00564644 0.0782468 -0.0652937 0.0776591 0.0230263 
-0.0267196 0.0824717 0.0843161 -0.0230928 -0.123347 0.0265029 0.0322002 -0.0215402 -0.0183922 -0.118442 
0.0625313 0.0474533 0.011692 -0.0735229 -0.0390908 0.0687478 0.130573 0.0314031 0.00610859 0.0412324 
-0.0818114 0.000453833 -0.0514818 0.0481667 0.0128159 0.0311521 -0.0927992 0.060653 -0.0699094 0.012909 
0.0416054 -0.0654318 -0.0792349 0.0646399 -0.0367715 0.147388 0.0121497 0.0431168 0.0101747 0.117281 
-0.00234272 0.0358885 0.0137028 -0.0228034 0.0693893 -0.0370176 0.0683935 -0.0239051 -0.00655694 -0.0404253 
-0.0422845 -0.0340988 -0.0441063 -0.0598847 -0.0802675 0.0656694 -0.00360446 -0.0708093 0.0943749 0.0317375 
0.0800142 0.0982571 -0.0887567 -0.0851149 -0.0634087 -0.0863098 0.0596639 -0.0198779 -0.048994 -0.00163633 
0.0785822 -0.0160107 0.174768 -0.00183177 -0.113771 0.0390608 0.0493135 0.0172699 -0.0666148 0.05665 
-0.0675771 0.0316244 0.050486 -0.0541362 -0.0655058 -0.0159171 0.00234502 0.0339517 -0.0663973 -0.006776 
-0.0322288 0.0574331 0.04581 0.0543144 -0.0184457 -0.0184859 0.00604922 -0.047053 0.013306 -0.0641821 
0.0643682 0.0822723 -0.196609 0.0585753 -0.0865861 0.119906 0.0710472 0.0259099 0.0104567 0.0808178 
-0.071039 -0.0506978 -0.0610386 0.0281487 -0.00286708 0.0603947 -0.0334173 0.0593402 0.0274885 -0.0647487 
-0.14011 -0.0454183 0.0322594 0.095489 0.088383 -0.00993877 -0.0615952 -0.0531102 -0.0202943 -0.021829 
0.0178497 0.0216226 0.0466714 -0.0537178 -0.109565 -0.0995945 -0.0327339 -0.0337823 -0.018263 0.0919179 
-0.0255721 -0.0876372 0.124141 -0.0594087 -0.11553 -0.0375726 -0.115935 0.0332863 0.107203 -0.0373681 
-0.0791906 -0.00216963 0.0463206 -0.0085059 -0.0700765 0.0452838 0.0169166 0.0852587 -0.0352557 -0.0341413 
-0.0048653 -0.0592645 0.0294444 0.0548677 -0.0265949 -0.0511735 -0.0666827 0.0713267 0.124652 0.0175715 
-0.0692927 0.0273884 -0.121976 -0.0342354 0.130337 0.0226387 -0.00495417 -0.0580373 0.0565405 0.154191 
-0.0668494 -0.116539 0.0146414 -0.0698293 -0.0325504 -0.0732447 0.0352705 0.0170381 -0.0191919 0.0629255 
-0.0326928 -0.0844351 0.015473 -0.0558802 0.0194045 -0.0699049 0.130962 -0.0436154 -0.0264157 -0.00486418 
-0.0156508 -0.0486889 0.0613266 -0.0320369 -0.00966884 -0.039696 0.0426635 0.0122956 -0.00282336 -0.0615528 
-0.0590877 0.00519211 0.0828667 0.0454206 0.0501406 -0.0270182 -0.0769742 0.0435939 0.0356837 -0.0193772 
-0.0504327 0.0604963 -0.131797 -0.0934406 0.0464285 0.106455 -0.0148712 -0.167103 -0.0491158 0.100111 
-0.0654672 -0.073448 0.0209785 0.0473325 0.00642687 -0.0387836 0.0590933 0.0188031 0.0369481 -0.162116 
0.0243492 -0.0432894 -0.0419256 0.0342108 -0.0462875 -0.00880548 0.00955797 -0.0233578 -0.024913 0.0480384 
-0.022751 0.00790901 0.00340625 -0.0182818 0.0981901 0.0388174 -0.0648799 0.0935907 -0.113671 0.136775 
-0.0235404 0.0225058 -0.0735962 -0.0633144 -0.00324201 -0.00417596 0.00489951 0.10973 0.0243502 0.00142967 
0.089606 -0.0215356 0.147835 -0.000510355 -0.126085 0.104193 -0.0292528 -0.132344 -0.150846 -0.00989614 
-0.0561222 0.0479939 -0.0768126 0.108753 0.0316538 0.012452 -0.0896494 -0.0348482 0.0344232 0.047353 
-0.0170424 0.035722 -0.0311779 0.0148645 -0.0347413 0.0786671 -0.0503211 0.0168429 -0.0319563 -0.0426682 
0.0655805 0.0113585 -0.0170525 -0.00132395 0.0665423 0.133882 -0.0880493 0.0576858 -0.083586 -0.0666876 
-0.0404533 0.0209161 -0.0693655 0.128109 0.0535406 0.0141347 -0.0620617 -0.0990344 -0.0878299 -0.00201425 
-0.0633258 0.0379564 0.0191013 0.0534869 0.0456802 -0.0203174 0.060917 -0.0424057 0.0324238 0.0599743 
0.0240414 0.0431828 -0.142766 -0.0245385 0.0424347 0.0705403 -0.00554587 0.0427637 0.0115061 -0.107 
-0.0246459 -0.0201778 0.0578101 0.0050816 0.0778461 -0.0471027 -0.0252291 -0.0247709 -0.0513153 -0.00215673 
0.0323107 0.00333144 -0.0168153 0.104747 -0.0582826 0.083656 0.10064 -0.0252798 0.0530073 -0.0527683 
0.0342286 -0.0449042 0.0208646 -0.062239 -0.0957956 -0.0188004 -0.0643631 -0.0288253 0.0540426 -0.0637312 
-0.107732 -0.0587773 0.000503065 0.0329825 -0.0302775 0.0224164 0.0448019 -0.0193389 0.219741 -0.120624 
-0.0366955 0.0189898 -0.0140839 0.0966776 -0.0363716 -0.00242122 -0.0596484 -0.00208395 -0.0419073 -0.0010384 
0.0785955 -0.0204644 0.0603412 0.00211668 -0.00516358 -0.0737404 0.0842549 -0.0601185 -0.0471804 -0.00103463 
-0.11569 0.116841 0.100414 -0.0662515 0.0110177 0.0962556 0.0590593 0.0328585 0.0495282 -0.11295 
0.0192721 -0.102225 0.0174033 0.0461986 -0.0338619 0.0771217 -0.123359 -0.0443894 0.0125386 0.0736242 
-0.0638922 0.0170604 -0.0288386 -0.0152907 0.0175935 0.0414272 -0.0467596 -0.00570975 -0.0197799 -0.0749559 
-0.0884294 0.0799513 0.104569 0.0188087 -0.0953863 0.0446564 0.0197471 0.0165668 0.0511132 -0.0755231 
-0.0339764 0.00803708 -0.00674563 0.105282 0.00721636 0.0184935 -0.0656621 0.0743805 -0.0864513 0.00783193 
0.0283365 0.0099937 0.051081 0.0200078 -0.00494551 0.0428565 -0.0404394 -0.015452 0.000289594 -0.0135659 
0.0577397 -0.0466483 -0.0564604 0.0530958 0.0523363 -0.107613 -0.0507058 -0.018279 0.0323456 0.0491069 
0.012084 -0.122066 -0.0551512 0.080488 0.00865977 0.101065 -0.0458741 -0.00743225 0.00680069 0.0162883 
-0.0241371 0.0376374 -0.0625019 0.0133208 -0.012571 0.00970601 0.00606648 0.116443 -0.0509419 -0.119315 
-0.0660312 0.0595671 -0.0241785 -0.0445539 -0.0041619 -0.0557265 -0.00561241 0.111506 0.0123251 -0.116127 
0.00994488 0.0680336 0.0824896 -0.131776 -0.0688551 -0.0248626 -0.00681592 -0.0358694 -0.0505097 -0.0411619 
-0.0662111 -0.00424507 0.0812449 -0.100593 0.0913797 -0.0336482 0.140168 0.0270197 0.0794307 -0.0993003 
-0.0600178 -0.0352854 0.0512246 -0.0686841 0.0637342 -0.0506472 -0.0321669 0.0672343 0.046629 -0.0436609 
0.0800991 -0.00120941 -0.0424363 0.0107845 -0.0229744 -0.0660962 -0.0100829 0.115339 0.00531129 0.0293579 
-0.0400148 0.116777 -0.0214012 -0.03107 -0.0510568 -0.0323735 -0.00844693 0.00100223 -0.0295412 -0.00960748 
0.118695 -0.043305 0.0688217 -0.0863963 -0.141305 0.0758888 0.178912 -0.148578 0.103302 -0.0811747 
0.0312087 -0.0385558 0.0141682 0.0606991 0.0951384 -0.0570187 -0.0359817 -0.000819055 0.0807448 0.0508778 
0.0797464 -0.110313 -0.141795 -0.122907 -0.0340789 0.0674728 0.0236085 -0.134106 0.0293335 0.148451 
-0.0293985 0.101847 0.107848 0.0656196 -0.115414 0.0909562 -0.0409517 -0.0686511 -0.09412 -0.128911 
0.0200527 0.0271279 0.0716987 -0.0257168 -0.00139764 -0.028842 0.0250862 -0.0408133 0.06468 -0.0727226 
0.0957211 -0.0436528 -0.0782659 -0.0664054 0.106532 -0.0276476 -0.00300491 -0.0523438 0.0458014 0.0555744 
0.0395069 -0.0515961 -0.00514302 0.0664157 0.0639155 -0.0171923 0.0241722 0.0521355 -0.0036058 0.0839226 
-0.00239574 -0.0474384 0.0712196 0.0642578 0.0989614 -0.06601 -0.0248404 0.0703038 -0.024965 -0.0433605 
0.0320603 0.108636 0.0373611 0.0637932 0.0533981 -0.00101755 -0.0401047 -0.0235231 0.0366365 -0.059565 
0.0721953 0.0577499 -0.00916837 -0.0457333 0.0206193 0.0303179 -0.00217326 -0.0683154 -0.0714718 0.00206214 
0.160234 0.0673554 0.0260864 -0.04024 -0.0756044 -0.0415416 0.0488072 0.0132188 0.000788798 -0.0852493 
0.0571093 0.119644 -0.0107435 -0.0240555 0.0252506 -0.0933625 -0.0212081 0.0943313 0.0282789 -0.0286323 
-0.106537 0.0779214 -0.0747141 0.0426727 -0.130555 0.1253 0.0327202 0.0661332 -0.0427356 0.143909 
-0.0282653 -0.0319606 -0.0612234 0.0818812 -0.0586369 0.0038859 -0.0216279 -0.0224705 0.0341117 -0.0490247 
-0.0262392 0.0950788 -0.00874318 0.0332283 0.0750329 0.0993008 -0.066211 0.00237081 0.00966303 -0.0169808 
0.0730581 -0.176487 -0.0658958 0.103708 -0.114991 0.110625 -0.013648 0.00712318 0.0558378 0.0711316 
-0.0792035 0.0522265 -0.0474462 0.0242516 -0.0311278 0.0419968 0.101705 0.00576461 -0.0774345 -0.00242584 
0.124193 -0.0515132 0.0522167 0.0145223 -0.080228 -0.0974445 0.0775779 -0.0842132 -0.113432 0.00540947 
-0.0338216 0.0303761 -0.0154172 0.0462866 -0.0158164 -0.01624 -0.00944584 -0.0941769 0.0627169 0.0279377 
-0.0314936 0.149623 0.0368084 0.0979136 -0.0942629 0.109335 0.010056 -0.0832689 -0.0190316 -0.0621645 
0.0412965 0.0671506 -0.032917 -0.00222627 0.0872987 -0.0572905 -0.146626 0.0354718 0.0624476 0.0495018 
0.0649045 -0.0254588 0.0771397 0.112727 -0.110767 -0.0565347 -0.139564 0.0440046 -0.0792082 0.0470768 
-0.0160662 0.0389835 -0.0443469 0.00745352 0.0133218 -0.0564403 -0.0191332 0.0263753 0.0620312 0.0476614 
0.0249273 0.0208898 -0.0881372 -0.0231 0.00603238 -0.0651764 0.216312 -0.0375944 -0.00598638 -0.0873292 
0.119888 -0.138375 -0.101805 -0.0116935 -0.0212618 0.076981 0.211997 0.023778 -0.0412968 -0.182662 
0.0125783 0.0363039 0.018248 -0.112363 0.0134557 0.0424286 0.0624395 -0.0598225 0.0835958 0.00197984 
0.128772 -0.00813432 0.0539277 0.0699662 -0.040035 -0.0152447 -0.0789368 -0.0819503 -0.0176801 -0.0443366 
-0.0430403 -0.0588711 0.157907 0.0997218 -0.0500075 0.046064 0.0416201 0.0754036 -0.0723728 -0.127587 
-0.0533158 -0.00547506 0.0524523 0.0855448 0.0254427 -0.0282313 -0.0203502 -0.0187253 0.0542884 -0.0251676 
-0.00075263 -0.0718036 0.0842287 -0.0827929 -0.071745 -0.0632907 -0.0371932 -0.0120633 0.0230873 0.066428 
-0.0179389 0.0289824 -0.0257384 0.110519 0.0762194 -0.157661 -0.0990993 -0.0555617 -0.0770368 0.0925367 
-0.074854 0.0302205 0.101181 -0.0807192 0.0122779 -0.0222846 -0.0378951 0.000409581 0.0087017 -0.0853009 
0.0952836 -0.0681726 0.0537329 0.0668172 -0.069678 0.0285468 -0.0821704 0.115867 0.0675808 -0.0816085 
-0.00157065 -0.00674892 0.0400874 -0.0132092 0.00831451 0.0497991 -0.0378293 -0.0189871 -0.0400201 -0.0392494 
-0.0200981 0.0466172 -0.00729328 0.00365452 -0.0621059 -0.0451527 0.0439392 0.0706331 0.050795 0.0213845 
-0.0858982 0.0540145 0.0292507 0.11548 -0.0986491 0.0706698 0.0786036 0.0386309 0.0129346 -0.0627124 
-0.154768 -0.183534 -0.0477598 0.168902 0.0505999 0.0268578 -0.138057 0.0796057 0.0451783 0.116647 
-0.130657 -0.070014 -0.0753027 0.193617 0.00498864 -0.0480801 -0.146024 0.0211773 -0.01894 0.0907461 
0.0453293 -0.0519998 -0.0214424 -0.0568014 -0.0111378 0.0831579 -0.00091301 -0.00199345 0.0467909 0.0593766 
-0.0741559 -0.0798097 0.144957 -0.0280871 -0.03425 -0.0638032 0.00528025 0.158466 -0.0174486 -0.0129976 
-0.000401286 0.102555 0.0584823 -0.116264 0.0780452 -0.133137 0.0526937 -0.0847225 0.0576958 -0.0960676 
0.0376087 -0.0212496 0.0470097 -0.055401 0.0482523 -0.0798233 -0.0659692 0.113254 0.0550277 -0.0342166 
0.0323091 0.10099 -0.100858 0.0475958 0.00435221 0.0728763 0.0682243 -0.0661519 -0.00301756 0.0296204 
-0.00408979 0.0151965 -0.111748 -0.0732109 0.041962 0.0959989 0.117098 -0.0106844 -0.052751 -0.0958764 
0.0535259 -0.0731269 0.0334954 -0.0961134 -0.0911581 -0.0970059 -0.0832334 -0.0190171 0.0909229 0.00426581 
-0.0548917 0.0195671 0.131604 -0.0336634 -0.0717918 -0.00479908 -0.105205 0.145466 0.0690703 -0.0318494 
-0.0315641 -0.0197886 0.106981 0.103386 -0.00610875 -0.0263252 -0.067751 -0.0904216 -0.0317676 0.0570794 
0.0119739 0.0280789 0.0638917 -0.0176277 -0.0423876 -0.0295786 0.00240954 -0.0576968 -0.105497 0.0490562 
0.0133914 -0.0862337 0.0281709 0.00703686 0.0978425 -0.0111974 -0.0917755 0.169782 -0.170321 0.0684099 
-0.0224397 0.0986952 0.0170913 0.0947637 0.0354633 0.0319881 0.0319633 -0.0787371 -0.0749171 -0.0411009 
0.0286465 0.017423 0.0521956 -0.0325424 0.020555 0.0446001 -0.0781955 -0.00873507 -0.0619399 -0.0204099 
0.0667864 -0.0352376 0.0385328 -0.0126794 -0.0566262 0.00830634 -0.0974189 0.103554 -0.0272555 -0.0262802 
0.0600992 0.0585987 0.054619 -0.0626662 0.0263814 0.00785574 -0.0485014 -0.00715606 -0.0443426 0.00703507 
-0.0665944 -0.0273191 0.0388962 -0.0655411 0.117912 -0.0673497 0.0672175 -0.0280992 0.0593125 -0.120417 
0.0474696 -0.0928519 -0.0919929 -0.0317269 -0.0157523 0.0229018 -0.0410471 0.0304854 -0.057435 0.13195 
0.0348358 0.077837 -0.0457496 0.0837941 -0.0770974 -0.0400466 -0.097866 0.133141 0.0194001 -0.0580596 
0.0763433 0.0330876 -0.0192716 -0.060435 -0.0722903 -0.0126975 0.0209764 -0.0350785 -0.0265787 -0.0253934 
-0.0974438 -0.0114686 0.0167863 0.0712943 0.0800352 -0.0289391 -0.0575743 -0.0742973 0.00103004 0.0247629 
-0.0349716 -0.0119735 -0.0800372 -0.116686 0.188027 0.0809107 -0.0536558 0.0247252 -0.0426068 0.0862312 
-0.078479 0.0347267 -0.0260711 -0.0720358 -0.0573043 0.00877449 -0.0261109 0.100744 0.0459982 -0.0570958 
0.0415489 0.0474945 -0.0310607 0.000909647 0.0384661 -0.0655667 -0.0821628 0.0856056 -0.0497671 0.113756 
-0.0128137 0.0495706 -0.0382995 0.0801873 -0.0403374 -0.035038 -0.215506 0.0716628 0.0612564 0.0876209 
0.0880768 -0.00339975 0.0600288 0.0591184 -0.0433378 0.0104628 0.0399062 0.0116639 0.042772 0.0427271 
-0.119133 0.0950797 0.028429 -0.0491868 0.067136 0.0572719 -0.036679 0.0453604 -0.105911 -0.0645883 
-0.0392027 0.165756 0.0204554 -0.100463 0.0607022 -0.00318349 -0.0423585 0.0548658 -0.185019 -0.00795028 
0.097157 0.0195381 0.118946 0.00530392 -0.0817363 0.00957448 -0.0487019 0.0201087 -0.0714285 -0.0764444 
-0.0392873 -0.000890999 -0.0103214 -0.0360619 -0.0535778 0.0268945 0.00605032 -0.0745264 0.0851324 -0.0180707 
0.000791484 0.0172485 -0.00349568 0.122284 -0.145342 -0.0510579 -0.0723347 -0.0965222 0.100049 0.0294792 
-0.00630054 -0.0801018 0.0796855 -0.040946 0.0457646 -0.0426044 0.0612786 -0.00786924 -0.101037 0.0399657 
0.0124747 -0.0780624 0.0891489 0.0548446 -0.0969965 0.0697527 0.0124929 -0.0541196 0.015648 -0.0183599 
-0.0125483 0.0593485 0.0251924 0.0173971 -0.0543223 0.066993 0.0116982 -0.0678689 -0.00857724 0.0568984 
0.0103739 0.0905423 0.071573 0.0299374 0.00414262 -0.0903 -0.0257354 0.0729452 -0.102193 -0.0748476 
-0.0456934 0.0980307 0.0197183 -0.0396035 0.0348944 -0.0791841 0.00604139 0.0864582 -0.044283 -0.083247 
-0.0178531 0.0946536 0.0956909 -0.109655 0.087656 -0.0465149 0.064643 -0.0353606 -0.115916 -0.146417 
0.00101379 -0.00647723 -0.0593894 0.036183 0.0404045 0.0382205 -0.0318912 -0.0582363 -0.0375272 -0.0261021 
0.0620027 0.0218506 -0.0465153 0.121205 -0.0663285 -0.0652899 -0.0237134 0.0479151 0.00577527 -0.022435 
0.0446902 -0.0339227 -0.0393522 -0.0509076 0.0206736 0.00465235 0.00467796 -0.0482861 0.0578291 -0.0149486 
-0.0347101 -0.0843687 -0.0779477 0.045238 0.0870801 0.0561131 0.0664541 -0.00931172 0.0426095 -0.0574065 
-0.0235089 -0.00731206 0.0102275 -0.0130874 0.00928143 0.00903964 0.0271026 0.00273961 -0.0155301 0.0440548 
0.0620221 0.0572186 0.0327672 -0.0502407 0.0666236 0.042713 0.129349 -0.0446872 0.00585265 -0.0698617 
0.0570743 -0.0445834 0.0961887 0.0300846 0.0376777 0.0454169 0.0134077 -0.0640495 0.0510944 -0.133667 
-0.0892778 -0.139679 0.052909 0.113641 0.0339589 -0.0801538 0.0215037 -0.0265701 0.105326 0.0944985 
-0.0485847 0.0131133 0.0482097 0.0086536 0.0752498 0.0213478 -0.0360066 -0.0367205 0.10112 -0.107251 
0.0394915 -0.0395813 -0.0545092 -0.0602505 -0.0100015 -0.0200281 -0.00644489 0.0401028 -0.0189597 0.0284027 
-0.00140434 -0.0542595 -0.0538227 0.0241126 -0.0305246 0.133893 0.035738 -0.0799986 0.0348708 0.0664423 
-0.0350783 -0.0297145 -0.0166851 -0.00330531 0.0490483 0.0866935 -0.00791573 0.0527604 0.150523 0.101291 
-0.0566393 -0.0793993 0.0628096 -0.050114 -0.0149876 -0.000266096 0.0323475 -0.0439763 0.098021 -0.124695 
-0.0671175 0.0283212 0.117981 0.204558 -0.0889454 -0.0310203 -0.0260398 0.00837579 -0.0621952 -0.0387287 
-0.0795849 -0.0437493 -0.113479 0.130385 -0.0398217 0.0662826 -0.073036 -0.0275194 -0.00351449 0.0554963 
-0.0626859 -0.0309998 -0.0231603 -0.0265474 -0.00702531 0.0277637 0.0437803 -0.0389653 0.0379364 0.0809126 
0.0588247 -0.0296206 0.0569915 -0.00550844 -0.0746745 -0.0475863 0.0240415 0.0158775 -0.0123826 0.0873734 
0.0346198 -0.0223348 0.0438475 -0.0242596 0.0627943 0.0262716 -0.0098591 0.0172056 0.0637029 -0.0750535 
-0.057499 0.0486563 -0.0289356 0.0619866 -0.111957 0.0513284 -0.0652302 -0.00750218 0.0512045 -0.00994857 
-0.028724 0.121573 0.0257779 -0.0229085 0.00929253 -0.0272847 0.00825749 -0.0388289 -0.114273 0.0386968 
-0.0153327 -0.0447706 -0.0149846 0.0125838 -0.0956254 0.0806597 0.0590659 -0.00688894 0.0457004 0.0445682 
-0.0391942 -0.0182512 0.00139275 0.0243008 0.0365936 -0.0450519 -0.0394448 0.0328273 0.000629497 -0.0707792 
0.110604 0.0820023 -0.070228 -0.121717 0.13272 -0.102543 -0.0720262 0.113601 -0.0515147 -0.028098 
-0.0319912 0.0990324 -0.0189995 -0.0786165 0.122764 -0.0506844 -0.00093944 -0.061033 0.0826285 -0.0459607 
-0.0541293 -0.039268 -0.0471336 0.0850775 -0.0369834 -0.0299631 0.0478573 0.00160423 0.078392 -0.0643856 
-0.0153188 -0.0167093 0.040567 0.0334317 -0.0413744 0.00800582 -0.0636431 -0.0241739 -0.0485075 -0.100829 
0.0286182 0.0361715 -0.064442 -0.00050352 0.0020935 -0.0132693 0.0575389 0.00664776 -0.0436771 -0.0909745 
-0.0399737 -0.0447689 -0.0254098 0.0619885 -0.0790435 0.0774144 0.0201048 -0.0768048 0.0357568 0.00359693 
-0.0342019 0.0800733 0.0515244 -0.096353 0.138923 0.0168017 0.00631417 -0.0413672 0.00953256 0.00177045 
0.0235157 -0.114833 -0.0323284 0.0568294 -0.06848 0.00229097 -0.0161569 -0.0843273 0.104358 0.024981 
0.00145557 0.0600533 0.039501 0.0694865 0.0665973 -0.0679425 -0.0883676 0.0634756 0.0699355 -0.137586 
0.0784342 0.0436741 0.0418976 -0.0615018 0.0704327 -0.0188856 0.0296235 0.016146 -0.0386188 -0.0211449 
-0.0256476 0.0695614 -0.0338185 -0.0524621 0.0465576 -0.0622681 -0.0274597 0.0518819 -0.0302696 -0.0036882 
-0.0927683 -0.0254246 -0.0197916 0.0673494 -0.0595751 -0.0221042 -0.00932028 -0.048832 0.0505175 0.08356 
0.128159 -0.0668585 0.0242277 -0.0347488 0.0371824 -0.114837 0.0384675 -0.0697112 0.0524073 0.0292358 
0.0405767 0.112692 0.0331885 0.0101656 0.0840579 -0.117827 0.0437807 -0.000178321 -0.0197218 -0.0942051 
0.0238128 -0.030056 -0.0427461 0.0800689 0.0549009 0.0175986 -0.0203301 0.112305 -0.0979065 -0.161641 
-0.0616859 -0.0561049 0.00215252 0.0786743 -0.120922 0.0266463 -0.115466 0.112603 0.0863891 0.137359 
0.0758728 0.000693536 0.0469215 0.0839782 -0.119767 0.0376807 -0.0523108 0.0452319 0.00120985 0.00823638 
-0.00892863 0.0146435 0.0506484 0.0534158 0.0638373 0.0316716 -0.0995185 -0.0461702 0.0136131 0.108426 
0.112078 -0.00237449 0.013466 0.000425311 0.074991 -0.131938 0.0865338 -0.0174383 0.0489144 0.0287408 
-0.0500846 0.0630893 0.022127 -0.112788 0.0659956 -0.136165 0.109027 0.02668 0.075769 -0.00691221 
0.019302 0.0423299 -0.0303881 0.0257763 0.00774506 -0.00310789 0.0398673 0.0310908 0.0431441 0.0589275 
0.079113 -0.0556446 0.077695 -0.0420459 -0.0653373 -0.0302505 -0.0535942 0.0751957 -0.068644 0.0354012 
-0.00818033 0.111895 0.164383 0.0428493 -0.0976823 -0.0681873 -0.113207 0.0169386 0.0363579 -0.182485 
-0.0222627 0.0993462 -0.0327965 -0.0452734 0.0107214 -0.0762162 -0.041033 -0.00359084 -0.0248753 -0.00888483 
-0.0910053 -0.0982141 -0.02704 0.0693403 -0.0789135 0.0299303 -0.0821024 0.128715 -0.0134697 0.115835 
-0.0186665 0.104826 -0.0475854 -0.0235855 -0.00893478 0.073175 -0.0486623 -0.0227998 0.0227968 0.0652028 
-0.0225968 -0.00504113 -0.0606176 0.123561 0.0657306 -0.0296778 -0.0856091 -0.00661011 -0.0414047 0.0693629 
0.00291056 -0.063831 0.0419471 0.0683581 -0.00571093 0.0603617 0.12325 0.0267454 0.0982623 -0.059203 
-0.0921112 -0.0847803 0.100255 -0.0877888 0.124858 -0.0465874 -0.0169045 -0.104707 -0.0224344 0.0574747 
0.0537399 0.032493 -0.0365875 -0.0554218 0.0197094 -0.0865721 0.00605588 0.0695697 -0.0237646 -0.0402563 
0.0126384 0.0427718 -0.0227687 0.0131524 -0.00630851 0.0252614 -0.0405636 -0.000991417 0.0532555 -0.0426235 
-0.116076 -0.0324278 -0.0302703 -0.0057941 -0.0815106 -0.153448 0.00749993 0.119545 0.114213 0.0781484 
0.0624108 -0.0893117 -0.0171556 0.034257 0.0168074 0.0585671 0.010431 0.0407453 -0.0521667 0.0612697 
0.000202243 -0.0478218 0.0769948 0.0433967 0.005228 0.0434943 0.0119331 -0.0702471 0.00598946 0.007315 
-0.0557812 -0.0450687 0.048209 -0.0172519 -0.136004 0.150857 -0.0147401 0.0171567 -0.0373693 0.015789 
-0.103001 -0.12816 -0.0702745 -0.0299325 0.117344 0.078195 0.117083 0.0544624 0.0994607 -0.0178297 
0.00875399 0.0467428 -0.00769306 -0.106856 0.0781991 0.128969 0.0311199 0.0616534 -0.112719 -0.0773104 
0.0473907 -0.0654554 0.0545788 -0.0315968 -0.0269643 0.0192343 0.0236323 0.0118581 -0.090228 -0.0197539 
-0.0706808 -0.12143 0.0892899 0.0317509 -0.0218353 0.0434664 -0.0684529 -0.0276497 -0.0395173 0.113833 
0.0334026 0.0794525 0.0314199 -0.0538304 0.0347522 -0.0703359 -0.0705882 -0.058592 0.0503916 0.016432 
0.00582761 -0.0138451 0.060874 -0.0231826 -0.00376093 0.0213081 -0.0669852 -0.0155404 0.0476215 0.0713993 
-0.0315418 5.03565e-05 0.0926619 -0.0552933 0.0770475 0.154798 -0.0455831 0.00534804 -0.0751524 -0.118112 
0.0880868 -0.036093 -0.0578388 -0.132661 0.0481479 0.0110754 -0.0124025 -0.00609022 0.111313 -0.0826831 
-0.0176834 -0.0374817 -0.00748956 0.0166367 -0.0328813 -0.0777694 0.084454 0.0161344 -0.11484 0.0270104 
-0.00541422 0.0609689 -0.0398254 -0.0590977 0.0633901 0.0384368 0.0279236 -0.046116 -0.0514678 -0.00915943 
-0.0353215 -0.0565072 -0.0415884 0.056976 0.046537 0.0599731 0.0288832 0.0358692 0.0416283 -0.0633371 
-0.0263628 -0.0583155 -0.0749092 -0.00766664 0.0798178 -0.0115966 -0.0430094 0.0257386 0.00828219 -0.0546722 
-0.00363846 0.00112063 0.0557648 -0.0290826 0.0893583 0.0735138 -0.02561 -0.0548708 -0.0308016 -0.0795396 
0.12046 0.0385216 0.10185 -0.0553631 -0.0133129 -0.143908 0.0341187 -0.0512518 -0.11504 -0.0146048 
0.0555122 -0.0444892 -0.060849 -0.0217022 0.00639327 -0.0669285 -0.0712311 0.0350179 -0.0410164 0.0533618 
0.0250405 0.00995195 -0.00079238 0.024595 0.00101529 -0.0500199 0.0697787 -0.083692 0.0187823 -0.123452 
0.0104803 0.0994732 0.100663 0.021801 0.0380471 0.00645101 -0.0568147 0.00487068 -0.0474087 -0.0241335 
-0.0336895 0.0190934 0.0615565 0.0390502 -0.0190547 -0.00479069 0.058008 0.0651436 -0.0363288 0.0441177 
-0.0236688 -0.0317574 0.0502372 -0.00991354 0.0723191 -0.0495413 0.0554948 -0.0454605 0.0185604 -0.0622169 
-0.0545407 -0.11568 -0.114323 -0.0634325 0.0355559 -0.0675216 -0.0517013 -0.00175698 0.0257548 0.0853802 
-0.0472275 0.0280177 0.00459199 -0.0668718 -0.00209986 0.00826618 -0.0227042 0.0365798 -0.00649859 -0.0421313 
0.00360882 0.0307712 -0.02278 -0.0326944 -0.0167568 0.0838677 -0.0561064 -0.0119088 -0.0820654 0.0115555 
-0.0467753 -0.0277053 -0.0720055 0.0443949 -0.0718142 0.0670924 -0.0179302 -0.0484618 -0.0626868 0.0461763 
0.00512881 0.0757772 -0.0312019 0.105349 0.00658032 -0.102476 0.0157104 0.128127 -0.161485 0.0743357 
0.039944 0.0701522 0.0673203 -0.0733549 0.0559628 -0.0199375 -0.0225467 -0.0560237 -0.0323078 0.0321774 
0.00377335 -0.071249 0.0520967 0.0461614 0.0335127 0.0685282 -0.0806588 0.0489229 -0.0129031 -0.0742596 
-0.0514581 0.022487 -0.026854 0.0188711 -0.0126012 -0.0122738 0.0693173 0.0982265 0.0223654 0.0157905 
-0.0227952 0.0325267 0.00725216 -0.00567952 -0.0342537 0.0396319 -0.0568873 0.0606547 -0.121128 -0.0468225 
0.0258335 -0.0339626 0.00736119 -0.0640274 -0.060925 -0.0222578 0.0184044 -0.0562641 0.0447182 -0.0649524 
0.0561464 0.0337968 -0.0354364 -0.067587 0.0641878 -0.0309926 0.0182418 -0.00137415 0.015593 0.0498487 
0.0495732 0.0260931 0.051479 -0.104065 0.00437015 -0.0942902 0.0856253 0.113099 0.0029084 0.024983 
0.0684785 -0.0322998 0.0677679 -0.0430343 0.038835 0.0542124 -0.0910893 -0.0507658 0.0148585 -0.0319072 
-0.056334 -0.055509 -0.0754601 -0.0541523 0.0145538 0.0647719 0.0577729 -0.0599283 -0.0462269 -0.0457103 
0.0140432 -0.0549679 -0.0466682 0.0955735 0.121081 -0.0514416 -0.0532336 -0.0393392 -0.0396025 0.117501 
-0.036458 -0.0384192 0.0250782 0.0672813 -0.00564342 0.0228822 -0.000131749 -0.0531819 0.0615846 0.0157975 
-0.0280155 -0.0661139 0.0823377 0.0555818 -0.056605 0.0138189 0.0557619 0.0700499 -0.0343079 -0.010709 
-0.0651074 -0.0189264 0.0474869 0.115815 0.00384709 0.0254075 -0.0371553 -0.0315721 0.00686482 0.0259393 
0.0718743 0.0369056 -0.064287 -0.00364805 -0.0387961 -0.0553274 -0.0544303 0.0415133 0.0195494 0.0541673 
0.00194349 -0.163055 -0.10148 -0.0773389 0.00345706 0.136183 0.209474 -0.0976726 0.0394453 0.0457857 
0.0508806 -0.0534602 -0.0624864 -0.00742023 -0.0772077 -0.00693959 0.0244013 0.0252859 -0.0402626 0.0197785 
-0.0187082 -0.0967552 0.0203289 -0.0520218 -0.0735295 0.0538503 -0.0742657 0.134025 -0.0379078 -0.0381971 
0.0539845 -0.00867669 -0.0143426 -0.0795281 0.0800915 -0.0863377 0.0207071 0.0650733 0.0447206 0.0877956 
0.0213446 0.0769682 -0.0698304 -0.0890848 0.0805566 -0.00268913 -0.1418 0.154639 -0.0595562 0.0113104 
-0.0481366 0.0387696 0.017804 0.0591643 -0.0188921 -0.0345038 -0.0180462 0.00695347 0.0893703 0.0574404 
0.0429686 -0.0323716 -0.0527819 -0.0419273 0.0930263 -0.017625 -0.0686778 -0.0817614 0.125177 -0.0483097 
-0.0964806 0.0273202 -0.0286617 0.0276097 0.06695 0.197516 -0.00644069 -0.0746067 -0.0969938 0.111757 
-0.105071 0.00298242 -0.0280363 0.0662635 -0.0124838 0.0959808 -0.0378549 0.00800767 0.0504631 0.000706733 
0.105013 0.0528349 0.0157628 -0.0607997 -0.0415408 0.0930771 0.0184865 -0.00980367 0.00273401 -0.00861851 
-0.0713968 0.0314934 0.0848753 0.0226902 -0.0635252 -0.0963617 -0.043894 0.159868 0.045347 0.00835479 
-0.030426 -0.00521098 -0.0504238 0.0565071 -0.0261855 0.0553202 -0.0958394 0.0625698 0.00438417 -0.0507644 
0.0596387 0.000117637 -0.0312812 -0.0134292 -0.102529 0.0637959 0.0953842 -0.0357669 -0.00217213 -0.0572079 
-0.125545 0.0992011 -0.169254 0.14921 -0.0662873 0.0534177 -0.0455257 -0.14768 0.0898665 0.0985216 
-0.0187192 -0.00230073 0.00421755 0.0241182 0.00736472 -0.0465381 0.0340225 0.0971454 -0.050093 0.0130628 
0.0596585 -0.066401 0.0445782 -0.0124105 0.0640484 -0.0601364 0.0100551 -0.0279275 -0.0885211 0.152634 
0.0217949 0.0151487 0.0487201 -0.0690474 0.0526291 0.0566043 -0.0236845 0.0591728 -0.080678 -0.0123381 
-0.0475914 -0.0139224 0.0856464 -0.00492476 -0.018798 -0.00608618 -0.101802 0.000455496 0.0798906 0.154288 
