-0.0237886889546
0.0876033639651
0.00420462492722
-0.0438880456808
-0.0539553423789
0.00700416021873
-0.00893229000079
0.0266310892842
0.00476222544058
-0.0608380053157
-0.0409929774763
0.00534023301147
0.0823613309616
-0.0641018683272
0.0871669038512
-0.0373502943002
0.0358457042478
0.0386303857386
0.035943098167
-0.0759057564495
0.0926888266941
0.0509783091718
-0.0227474342084
0.0559805183723
0.0165887924273
0.0464136257543
0.0681034172759
-0.00441897723586
-0.115699174477
0.0236234856144
-0.0533807418475
0.00417321151578
-0.0880287511115
-0.0327759838898
0.00903174260503
-0.00538587618891
-0.0312483824527
-0.0313377119787
0.0905067668522
0.0124126299846
0.0109007708311
-0.0046075625916
0.013806773718
0.0130926594206
-0.0377104698174
0.000586621271292
-0.0261415113247
-0.023942407885
0.00567036642062
0.0272120624009
-0.0151416540902
-0.122013535864
0.0527249783927
-0.0364281156834
-0.0325816958675
-0.0752972176745
-0.029856809625
0.0345226776039
0.0751247028987
0.00699691964537
-0.0400082101313
0.0461131518185
-0.0179953316817
-0.0239555582507
0.0284530360905
0.0582938617272
-0.00761300786813
-0.0184034614754
0.00113190463963
-0.0685425259694
0.0236690259866
0.0237326574763
0.029782514112
-0.0484376680088
0.0364716116538
-0.043191286635
-0.0202644957593
-0.0880882092979
-0.0310882651551
-0.0633552628157
-0.0280233627608
-0.0407066233157
-0.0186276783346
-0.0128619535766
-0.0422392556564
0.0269342298519
-0.0479406547585
0.105196618666
0.0516685014515
0.0299623837253
0.0181838260351
-0.0678945509685
0.00233792581814
0.00030726602889
-0.0100005899453
-0.0525558357871
