0.0323669401965
-0.0445898904768
-0.126655333104
-0.0593464830752
0.0426420305754
-0.0321411010639
0.0723696494243
0.0527465730092
0.0136852222031
-0.0294156027982
0.0316521838901
-0.0326474573269
0.0663942058812
-0.0771787458132
-0.00681967287038
0.000991598847601
0.0557161879054
0.109507897253
0.00382592375133
-0.0684271395039
0.0415343801524
-0.073810085987
-0.00399110444947
-0.0589986417782
0.0864230683921
-0.0645534352391
-0.0817647561962
0.0526712380817
-0.007358189141
0.0342246999628
0.0272319363526
0.0372838424487
-0.018962479363
-0.0471176451364
-0.0611439565298
-0.0316147716623
-0.0237464105809
-0.127133522101
-0.0393340217283
-0.0338524692213
0.106018512449
-0.0614019157241
0.033137821023
0.0133992045713
-0.0409736277243
0.0166636130441
0.00710110060161
-0.0341663634439
0.0329459236567
0.0480146720527
0.00329341802376
0.0066218796092
-0.0970385187686
-0.0240399261481
0.034102973567
-0.0468246759614
0.0487214136864
0.018788462279
-0.0882579248682
-0.0153159428201
0.0301980653875
-0.041329770676
-0.0307027662894
-0.0243907840681
-0.0158554355505
0.0411696258314
0.0129963407143
0.0473020163707
0.0758718817478
-0.0230537907796
0.128141970422
-0.0939576277892
-0.0183873993718
-0.052346236532
0.0416418744018
-0.0107594224536
0.00396003627938
0.0291864749056
-0.0130624265172
0.0373700650654
0.00940564240936
-0.0472112964367
0.0252894655056
0.0331018032169
-0.0558319928139
-0.000290950221528
0.02559984374
-0.0229996882351
0.0267569099655
-0.0139021511473
-0.00449710298046
-0.0343767282631
-0.0395267018484
0.0117746234478
0.147707888438
-0.0656296185252
