-0.00204946
0.00427091
0.00221338
0.00363584
0.00129003
-0.00339689
-0.000758585
-0.0103339
-0.0103914
-0.000308969
0.00225584
0.0160915
-0.00541504
-0.00325675
-0.0010132
0.0037787
0.0141902
0.000583085
0.00499301
-0.00676822
-0.00543023
-0.00417362
0.000622098
-0.00374555
0.0144266
-0.0036882
-0.0159049
0.000717988
-0.0015308
0.0007758
-0.00680855
-0.00117642
0.00300549
-0.00225497
-0.00492888
0.00644973
-0.00291171
-0.00827557
0.00299689
0.00387229
0.00392167
-0.000999268
-0.00534139
0.00505167
-0.00306828
-0.0136069
-0.00195504
-0.000327045
0.000170363
0.00657732
0.00798802
-0.0039889
-0.0106019
0.00699704
0.000424876
-0.000992844
-0.0114045
-0.00559529
-0.0072962
-0.00267347
0.00921731
0.00133688
0.00679109
-0.00481626
-0.00892416
0.0110251
0.00734492
0.0119581
-0.00778015
0.00206336
-0.00483678
-0.000758927
0.000381417
-0.00380685
0.00816622
0.0115835
-0.00079754
0.00235798
-0.000530487
-0.000296837
-0.00147446
-0.000233393
0.00150767
-5.99943e-05
0.008288
-0.00395245
-0.00110755
0.0101709
-0.00383106
0.00551036
-0.0162375
0.00954844
0.00953298
-0.00247562
-0.000174956
-0.00304761
0.0141424
0.00146347
0.0092255
-0.00656453
0.00685604
0.00401266
-0.00103729
-0.00328855
-0.0171012
-0.0051087
-0.00699215
0.00892167
0.00491225
-0.0117911
-0.00334331
0.00899716
0.012269
0.00533961
0.00082824
-0.00156749
-0.00172614
0.016399
0.00220597
0.000880482
0.013131
0.00135815
-0.0027936
-0.00504117
0.00287425
0.0014958
0.000434162
0.00428114
-0.00710021
-0.00470552
0.00306054
0.00337853
0.010547
0.0082197
0.00537096
-0.00710243
-0.000651716
-0.00544251
-0.00353299
0.00807539
0.00382129
-0.00208022
-0.00301226
-0.00466436
0.0276447
0.0104792
0.0154472
-0.00405057
0.0031717
0.010106
-0.00289498
0.0145038
0.0039521
-0.00526699
-0.000556649
0.00168843
0.00302958
0.00688599
-0.00277662
-0.00204407
-0.00462853
0.00231762
0.00286824
0.00597253
0.0058134
0.0103151
0.00226684
-0.00108795
0.00942723
-0.00238759
-0.00836664
-0.00798833
0.00294428
-0.00612162
-0.0047194
0.0104099
-4.48743e-05
-0.00421038
-0.00766852
0.00895644
0.00315337
0.0114355
0.00527632
0.0073745
0.00402408
0.00531503
-0.0074513
-0.00900954
-0.00439716
0.00575368
-0.00186046
0.00295517
0.00234991
-0.00401295
0.00973132
-0.00212232
-0.00517071
0.00242202
-0.00156561
0.00173589
-0.00158567
-0.00985661
0.0125859
0.00417903
0.00665249
-0.000808519
-0.00166312
0.0214592
0.00623017
-0.00776337
0.00992039
0.00051441
0.0100916
-0.00607062
0.00729678
-0.00802289
-0.00957363
-0.00212205
0.00235829
-0.00121899
-0.00236461
-0.011902
-0.00180415
-0.00584867
-0.000529626
0.00144956
0.000936055
0.000722392
0.0003517
-0.0121457
0.00326214
-0.00277644
0.00048908
2.98637e-05
0.0105882
-0.00580832
-0.00250224
0.0138282
-0.00158535
-0.000886873
0.00476011
0.0014831
0.000174481
-0.00154582
0.0102684
0.00722704
-0.00521883
0.00315314
-0.00908748
-0.00949636
0.00397832
-0.00363554
0.00202186
-0.00279298
0.0106178
0.00308222
-0.000569592
0.0016572
0.00773192
0.00336698
0.000216781
-0.0015014
0.00100568
0.00374472
-0.00243253
-0.00316394
0.000392872
-0.00366808
0.00378702
0.000146703
-0.00488723
0.000563662
0.0182119
0.00522622
-0.00210467
-0.00283333
-0.0103139
-0.00837031
-0.0122915
0.00929174
0.00306831
0.0146199
-0.00944833
-0.00509378
0.00252495
-0.00298431
0.00531904
0.00355254
0.00129427
-0.00139774
-0.00987155
0.0122148
-0.0080756
-0.00250858
0.00513348
0.0025873
-0.00171265
-0.00443517
0.0150456
0.00476017
0.00182101
0.00927722
-0.0032947
-0.00667885
-0.00596634
0.00591533
0.0116168
0.0110166
-0.00994052
0.00421657
-0.00848437
-0.00139211
0.00760769
0.0248403
-0.0100294
-6.25498e-05
0.00433654
0.00390157
0.00487943
-0.0103082
-0.00447474
-0.000565264
-0.00668001
0.00450184
0.00179742
0.0119721
-0.00343045
0.000458524
0.00691886
0.000526083
-0.0032246
-0.00798903
0.00463829
0.0154672
0.00273677
-0.000596886
0.00154274
0.00797605
0.00457525
-0.00326527
-0.00416706
-0.0092407
-0.000464714
0.00509279
-0.00674221
0.00777229
-0.00394185
-0.00340215
0.00664035
-0.000204196
-0.003108
-0.000221642
-0.010299
0.0237284
0.0024046
0.00375265
0.00182677
0.0068623
-0.00629397
-0.00619848
-0.0020358
-0.00260898
0.0020097
0.00171057
-0.0025204
-0.00579312
0.00519907
0.00227617
0.00435345
-0.00128801
-0.00550249
-0.00683079
0.0073341
-0.00878293
0.0159459
-0.00694481
-0.00750324
0.0167782
0.00957108
0.00687705
0.0156045
0.00176462
-0.0121997
-0.00399678
0.000125968
0.00802987
0.0069113
-0.00976561
-0.00742586
-0.00530094
0.00534397
-0.00250765
0.00857521
0.00190441
0.000747635
0.00171934
0.000818407
-0.00977522
0.0124712
0.0108239
0.00554846
-0.00249974
-0.0055877
3.82692e-05
0.00613375
0.00505293
-0.000210813
0.00501047
-0.00544993
0.0110518
0.000776295
-0.00108669
-0.00397144
-0.0026063
-0.00308147
0.00318869
0.0117023
0.0122849
0.00322939
-0.000802289
-0.00578219
0.00300266
-0.00984343
0.00618191
-8.95806e-05
-0.00160244
0.00189539
0.00099324
0.00638252
-0.00102214
-0.00514486
0.00688958
-0.00143565
-0.000133419
0.00695871
-0.00966335
0.00314039
-0.00776335
0.00299931
-0.000380891
0.00606802
-0.00335614
-0.00188467
0.00325462
-0.00544865
0.0178465
-0.00681057
-0.00564566
-0.000382103
-0.00235481
-0.00991318
0.00903178
-0.00585339
-0.00754676
-0.00300857
-0.00403469
-0.00945081
-0.000517432
-0.00500908
0.00518002
-0.000620651
-0.0119112
-0.0119069
-0.0100311
-0.00614259
0.000288808
0.00143122
0.0034397
-0.000395199
-0.00170736
-0.00933451
0.00344842
0.00194082
-0.0037274
0.00936996
-0.00238406
-0.00937689
-0.00600716
-0.00456011
-0.00599647
-0.00926233
-0.00722223
-0.00130335
0.000307409
0.00211826
-0.000643555
0.0111556
-0.00300335
0.0127897
0.000249063
-0.00344398
0.0087939
-0.00433038
-0.00311953
0.00264892
0.00103129
-0.0115404
-0.00397975
-0.00448501
-0.00252633
